-4.940656458412465442e-324 -4.940656458412465442e-324 4.940656458412465442e-324 4.940656458412465442e-324 4.940656458412465442e-324 4.940656458412465442e-324 4.940656458412465442e-324 4.940656458412465442e-324 -4.940656458412465442e-324 4.940656458412465442e-324 -4.940656458412465442e-324 -4.940656458412465442e-324 -4.940656458412465442e-324 -4.940656458412465442e-324 -4.940656458412465442e-324 -4.940656458412465442e-324 4.940656458412465442e-324 4.940656458412465442e-324 -4.940656458412465442e-324 4.940656458412465442e-324 -4.940656458412465442e-324 -4.940656458412465442e-324 4.940656458412465442e-324 -4.940656458412465442e-324 4.940656458412465442e-324 -4.940656458412465442e-324 -4.940656458412465442e-324 -4.940656458412465442e-324 4.940656458412465442e-324 -4.940656458412465442e-324 -4.940656458412465442e-324 4.940656458412465442e-324 4.940656458412465442e-324 -4.940656458412465442e-324 -4.940656458412465442e-324 4.940656458412465442e-324 4.940656458412465442e-324 4.940656458412465442e-324 -4.940656458412465442e-324 -4.940656458412465442e-324 4.940656458412465442e-324 -4.940656458412465442e-324 4.940656458412465442e-324 4.940656458412465442e-324 4.940656458412465442e-324 4.940656458412465442e-324 4.940656458412465442e-324 4.940656458412465442e-324 -4.940656458412465442e-324 4.940656458412465442e-324 -4.940656458412465442e-324 -4.940656458412465442e-324 -4.940656458412465442e-324 -4.940656458412465442e-324 -4.940656458412465442e-324 -4.940656458412465442e-324 -4.940656458412465442e-324 4.940656458412465442e-324 -4.940656458412465442e-324 4.940656458412465442e-324 -4.940656458412465442e-324 4.940656458412465442e-324 4.940656458412465442e-324 -4.940656458412465442e-324 4.940656458412465442e-324 -9.881312916824930884e-324 -1.482196937523739633e-323 -1.482196937523739633e-323 -1.062142427142228801e-74 -8.369682325880895152e-74 -7.095111413310116204e-74 -2.591627522227040262e-74 -8.497139417137849357e-76 -4.940656458412465442e-324 -4.940656458412465442e-324 4.940656458412465442e-324 -4.940656458412465442e-324 4.940656458412465442e-324 -4.940656458412465442e-324 -4.940656458412465442e-324 -4.940656458412465442e-324 -4.940656458412465442e-324 -4.940656458412465442e-324 4.940656458412465442e-324 4.940656458412465442e-324 -4.940656458412465442e-324 -4.940656458412465442e-324 4.940656458412465442e-324 -4.940656458412465442e-324 -4.940656458412465442e-324 -4.940656458412465442e-324 -4.940656458412465442e-324 -4.940656458412465442e-324 -1.482196937523739633e-323 -1.482196937523739633e-323 -1.482196937523739633e-323 -6.840197230795944862e-74 -1.883326018671912161e-05 -4.911805898518555746e-05 1.956543505080862741e-05 -2.939823879060714254e-05 -4.262922310470618408e-06 -1.054445962410016825e-04 -7.699163380208543547e-05 -1.929368826387790721e-05 -4.940656458412465442e-324 4.940656458412465442e-324 -4.940656458412465442e-324 -4.940656458412465442e-324 4.940656458412465442e-324 4.940656458412465442e-324 4.940656458412465442e-324 4.940656458412465442e-324 -4.940656458412465442e-324 -4.940656458412465442e-324 -4.940656458412465442e-324 4.940656458412465442e-324 -4.940656458412465442e-324 1.087789896111632330e-04 1.079258210651932190e-04 1.232484692476180129e-04 3.546533111164842673e-04 6.749330847887657003e-05 -1.033484272248213001e-03 -2.472825926821351113e-03 -3.217606500855093969e-03 -1.388529748995359333e-03 1.029112430268419955e-04 -6.555653926851299530e-04 -3.340552410318608514e-04 -2.338856322490364379e-04 -2.720227279038311963e-04 -5.519858307350095588e-05 -4.940656458412465442e-324 -4.940656458412465442e-324 -4.940656458412465442e-324 -4.940656458412465442e-324 -4.940656458412465442e-324 -4.940656458412465442e-324 4.940656458412465442e-324 -4.940656458412465442e-324 -4.940656458412465442e-324 -4.940656458412465442e-324 -4.940656458412465442e-324 -4.940656458412465442e-324 -1.135302020526537250e-08 1.823809227197678334e-04 5.692634745480970810e-04 6.894100979794305596e-04 1.900078124479728098e-03 2.820024498834798957e-03 1.860023687699417306e-03 -9.446893283259220810e-04 -2.874539179037001110e-03 4.170166390272062387e-04 4.919506635360624061e-03 4.862218514245240757e-03 1.325311368480127077e-03 -3.650711394998909292e-04 -7.293241981605480279e-04 -3.697360677864785367e-04 -2.978745124930141870e-05 -4.940656458412465442e-324 -4.940656458412465442e-324 -4.940656458412465442e-324 -4.940656458412465442e-324 4.940656458412465442e-324 -4.940656458412465442e-324 -4.940656458412465442e-324 -4.940656458412465442e-324 -4.940656458412465442e-324 -7.444908856450123908e-06 -7.721694237392746928e-05 -1.058169861534370996e-04 1.226043237580780527e-04 1.165850808625198010e-03 1.701097581703031819e-03 4.536322054253877183e-03 1.078433100534038208e-02 2.277597001083720915e-02 3.740082574269645854e-02 5.157463513007835149e-02 6.160416819563302449e-02 6.167348292733850629e-02 4.602007393410292857e-02 2.080186351159754934e-02 3.708511537166377190e-03 -3.370515609137270281e-04 -4.103755240274374778e-04 -1.695651834913247213e-04 -7.014906025813540439e-05 -1.100167640785214534e-05 -4.940656458412465442e-324 -4.940656458412465442e-324 -1.040095483576522900e-137 -1.440965617871633608e-137 -4.940656458412465442e-324 -6.594243922763063740e-39 -6.347419188425857306e-05 -1.365277216399270438e-04 -2.056609847108078278e-04 -5.485936073386781528e-04 -4.352083738408000298e-04 9.317147171990947541e-04 2.966757811795912164e-03 1.047765998057758989e-02 3.503829034310173424e-02 6.905227945371940346e-02 9.197699748018471622e-02 9.739286671050106925e-02 9.874553852293742329e-02 1.029306230411607681e-01 9.597409883747565207e-02 5.731346302139602583e-02 1.642217899836071610e-02 2.506576848943267623e-03 1.069464512567134087e-04 -1.168214192581834804e-05 -4.259545852887746618e-05 3.133762312053428513e-05 -5.643244419519619888e-06 -8.550370332641996572e-08 -2.448558117586354948e-137 -4.550417740647285002e-138 4.940656458412465442e-324 -2.819630365526468731e-38 -7.764232423404530601e-05 -1.250909860492424304e-04 -3.475439861971687584e-04 -9.517916236473820089e-04 -1.351400211723443462e-03 -4.307453796332833158e-04 5.421347549950407234e-03 2.996890372832105090e-02 7.606746358018640075e-02 1.061138244208319620e-01 9.943779329773727582e-02 7.659808983392286941e-02 6.674410272472547367e-02 8.534455311482248840e-02 1.068036815674087009e-01 8.492808246652849835e-02 3.511768908883690365e-02 6.967112101601860737e-03 4.240655126651942590e-04 -1.143398554474445882e-04 -1.697835553809746187e-04 5.319419184712851468e-06 -2.137592600028960147e-05 -3.420148133045112221e-07 -2.166865590784424100e-138 4.940656458412465442e-324 -4.940656458412465442e-324 -1.023256772055227881e-38 1.026658646306497180e-04 4.791201670019194753e-05 -2.807771519318703630e-04 -1.385105542380035389e-03 -1.839714519829518296e-03 5.263549991087563759e-04 1.754683805673253397e-02 6.388830328557572324e-02 1.073652261317173673e-01 1.060379061554573288e-01 6.513348087646925189e-02 2.681618889424667446e-02 2.203347263309490128e-02 5.665205532546910977e-02 1.015911623456983992e-01 9.825972771742140510e-02 5.038004410284816631e-02 1.108728344852934027e-02 3.688330929455717550e-04 -3.422880368838070300e-05 5.092445554788404475e-05 8.041191715417030463e-05 4.791999883788794907e-06 -7.095563266887742243e-276 -4.937748104201995107e-309 -4.940656458412465442e-324 -4.940656458412465442e-324 -6.721296250411282911e-80 1.696138983133534898e-04 5.531306657563107284e-05 -4.361979824374185520e-05 -6.633084311815594641e-04 -1.385232242303135368e-03 5.133087020806327734e-03 3.531353294491610534e-02 9.076813295937266601e-02 1.162859486820606303e-01 8.305659943047818961e-02 3.095837911922666441e-02 2.467325539545806717e-03 5.631818099622745190e-03 4.873700623826550393e-02 1.045974511169016213e-01 1.104719151832380397e-01 6.048268582010530442e-02 1.396583670955277127e-02 -3.156172258121863567e-04 -8.426677035832774287e-05 1.758105207049253163e-04 1.375516434144954004e-04 8.673670007369631079e-05 -5.137227767364351844e-295 -1.051395589793124840e-05 4.940656458412465442e-324 -4.940656458412465442e-324 -2.188329011761813877e-80 1.093609204605848037e-05 5.290857995541945884e-05 5.631439054771759576e-05 -6.616839096300324442e-05 1.104102855068367783e-05 9.917783651219017407e-03 5.224260040203153321e-02 1.074111961545081428e-01 1.104686508843261417e-01 5.881576485579870228e-02 1.484824073771602408e-02 -1.060125015175489641e-03 1.203469218373932892e-02 6.066892905887507487e-02 1.144646995512831888e-01 1.184899494356651400e-01 6.326119431027199536e-02 1.251957135918675690e-02 -1.498094345989692136e-03 -3.787201110349473288e-04 1.025962223673298769e-04 2.123124300993596743e-04 -2.364807843288309062e-05 -2.696837309624990407e-96 -3.460840088091014403e-05 -4.940656458412465442e-324 -4.940656458412465442e-324 -4.940656458412465442e-324 -1.457799277613460038e-05 -1.195395407974824878e-05 -3.038048315343529034e-05 3.302354963044853411e-05 6.978028934472060548e-04 1.279254026160469258e-02 6.163554149725341408e-02 1.130368249809980269e-01 1.041273476974049067e-01 5.058988771108107602e-02 1.815406412936478378e-02 1.414291703436196083e-02 3.591945191896900313e-02 8.194642611330400783e-02 1.272629475100208463e-01 1.199172781278784183e-01 5.788061923485289528e-02 9.125180673309847210e-03 -2.341161387329055408e-04 3.380835259740012190e-05 9.419910228142292527e-05 8.020361151965380757e-05 6.800864760521075313e-05 1.654846519598666685e-06 -6.618990774965839924e-05 -4.940656458412465442e-324 4.940656458412465442e-324 -4.940656458412465442e-324 -2.792612596713229733e-16 -5.182962760333443609e-06 -1.002805274072861741e-04 9.245552012055325685e-05 1.347859618366229612e-03 1.351593849624591753e-02 5.788059086940278153e-02 1.104522476647882140e-01 1.064402273912685992e-01 6.700298902152491964e-02 4.856790813965455172e-02 5.062179449728242131e-02 6.889119643146041083e-02 1.002782512987180213e-01 1.346880118674463611e-01 1.200455535011041852e-01 4.889875393016477473e-02 7.233253404732057149e-03 1.912481562334109346e-03 1.119002537305665689e-03 8.553211460091699565e-04 4.953928520370165598e-04 4.263751979914679163e-05 1.842213200772941067e-04 -4.940656458412465442e-324 4.940656458412465442e-324 4.940656458412465442e-324 -4.940656458412465442e-324 4.940656458412465442e-324 -5.182962758822125920e-06 -1.160053053577074066e-04 1.089396402920732358e-04 1.519325278605739363e-03 1.089932750091926125e-02 4.386889445051866260e-02 9.756415427160107512e-02 1.158337871997889706e-01 9.691401475140737354e-02 8.641221838424334445e-02 8.354061589317002268e-02 8.723692849079914269e-02 1.037974172990143995e-01 1.349103881756081313e-01 1.172476605536410532e-01 3.938512942296440444e-02 4.088982642245929736e-03 1.610451317107803931e-03 1.107664534157850721e-03 6.728998431596794685e-04 2.215493435792282488e-04 -6.576301819256091569e-05 -4.878732495337050556e-05 -4.940656458412465442e-324 4.940656458412465442e-324 -4.940656458412465442e-324 -4.940656458412465442e-324 -4.940656458412465442e-324 -9.881312916824930884e-324 -6.265651082236521965e-05 7.047984513928205117e-06 3.839559430225208633e-04 4.427626102625000122e-03 2.477795192879827732e-02 6.882781290604834956e-02 9.920310617322036784e-02 1.015632533704575735e-01 9.479367846968522748e-02 8.435568993364868373e-02 7.587356673003672891e-02 9.374643205706768845e-02 1.316255880970139402e-01 1.097539998917790999e-01 2.724897793474113927e-02 1.509908876391813847e-04 -7.588592554137064538e-05 1.386190677362418361e-04 -1.184139172567722760e-05 1.369281769565986807e-04 -8.509661982939005026e-06 -4.586631765481678861e-05 -4.940656458412465442e-324 4.940656458412465442e-324 4.940656458412465442e-324 -7.756830639707570744e-322 -4.940656458412465442e-324 -9.881312916824930884e-324 -4.524493554814086501e-05 2.399328052083327624e-05 -5.534912969679154585e-04 5.340566497079440042e-04 6.523340692204955549e-03 3.067909981268596847e-02 5.509330282418659769e-02 6.525885298628016085e-02 6.341496028253346129e-02 5.254527565906259162e-02 4.433341355986207544e-02 8.175978594399344046e-02 1.322182192647257948e-01 1.012188799206889672e-01 1.678884278654122972e-02 -4.483188118948608163e-04 -3.949481137172977858e-04 -2.082649027170885498e-04 -2.457617718700507860e-05 3.320355220660422131e-05 1.733858224354980693e-05 -6.065545619418044159e-05 -4.940656458412465442e-324 4.940656458412465442e-324 4.940656458412465442e-324 -1.584485704820867413e-212 4.940656458412465442e-324 -4.940656458412465442e-324 -8.780531914647270793e-06 5.558017349120480399e-06 -4.748286390056740596e-04 -1.156829840252212270e-03 -4.227441783687116905e-04 7.265217790311444788e-03 1.785365357098670988e-02 2.418026213472721994e-02 2.569020262185828588e-02 1.934836614688852097e-02 1.779087234842338661e-02 7.708480928727230730e-02 1.342076900951664209e-01 9.381572606060997743e-02 1.027820146838686818e-02 -7.575980026359965163e-04 6.292911680207835144e-05 2.035035717212727610e-04 1.075768738746145553e-05 -3.309229221609625139e-05 -1.627865402693465637e-05 -7.116003240659205967e-06 -4.940656458412465442e-324 -4.940656458412465442e-324 4.940656458412465442e-324 -1.039818743788711858e-212 -4.940656458412465442e-324 -9.881312916824930884e-324 -4.565229365233294855e-05 -1.720595690229979782e-04 1.926792192849426783e-04 -1.633562166567599689e-04 -1.219686644212587698e-04 2.018427600109973588e-03 4.998967666070852113e-03 7.411372495476609666e-03 7.521661877741271825e-03 3.449356048943251138e-03 6.737713790848925619e-03 7.906612581302495391e-02 1.356750502881118869e-01 8.653494917293727551e-02 5.982323356621183433e-03 -1.339199228051600075e-03 2.609280276259396823e-04 2.581487495689588590e-04 1.818302871220781126e-05 1.038370911507093106e-04 6.736424586004875130e-05 -8.951944993604531948e-96 -6.063505576986028257e-110 -4.940656458412465442e-324 -4.940656458412465442e-324 4.940656458412465442e-324 -4.940656458412465442e-324 -9.881312916824930884e-324 -9.881312916824930884e-324 -7.304146743815669778e-05 1.840058523317455444e-04 2.586982764351815713e-04 -2.163487110018142237e-04 -2.385464397174405895e-04 3.848053867098180300e-04 1.140353337507356464e-03 9.139339870338014996e-04 -1.597339918947306191e-03 7.067558842346475384e-03 8.772885316206362194e-02 1.363218858412732770e-01 7.916363803978444802e-02 4.500141556511762925e-03 -1.440768052128126291e-03 4.072822408020829936e-04 5.341740841883785978e-04 1.358890857908674245e-04 6.173209550616853684e-05 1.091395356960329969e-05 -8.951944993604510325e-96 -2.652783689931367493e-110 -4.940656458412465442e-324 -4.940656458412465442e-324 -4.940656458412465442e-324 -4.940656458412465442e-324 -4.940656458412465442e-324 -4.940656458412465442e-324 -4.030537825799308490e-05 4.175280890686445406e-05 2.771040367304800078e-04 -1.306768500208348139e-04 -3.189932850176073888e-04 -3.329801460264699147e-04 -3.193883232920794531e-04 -4.504762452131567474e-04 -3.255575288690475740e-03 1.123864765357213483e-02 9.444942592556045124e-02 1.361418930821539364e-01 7.088939413037657900e-02 3.231551840433187061e-03 -2.141478718107866185e-03 -5.195501932934091626e-05 4.804370012811206713e-04 1.897899971536108708e-04 8.405817610537367893e-05 7.593200059132168707e-05 7.593200059132168707e-05 -4.940656458412465442e-324 4.940656458412465442e-324 4.940656458412465442e-324 -4.940656458412465442e-324 -4.940656458412465442e-324 4.940656458412465442e-324 4.940656458412465442e-324 -1.951783216451260478e-05 -3.024940441629942328e-30 -6.869280156421126189e-06 7.791222992310203725e-05 4.917466388661929710e-05 -2.053007795874988068e-04 -4.531274965571678885e-04 -1.163313965743076892e-03 -4.283719315778589977e-03 1.868264125053144958e-02 9.921135069182689115e-02 1.344441093857295655e-01 6.531282108284960919e-02 3.772702870396074399e-03 -2.709759077696415660e-03 -3.098471011855241284e-04 4.269893720509527774e-04 1.954501238485804870e-04 8.278405448577171467e-05 8.275734895908087711e-05 8.275734895908087711e-05 -4.940656458412465442e-324 -4.940656458412465442e-324 -4.940656458412465442e-324 -4.940656458412465442e-324 4.940656458412465442e-324 4.940656458412465442e-324 -4.940656458412465442e-324 -5.928787750094958530e-323 1.885597460772562716e-05 8.641687513742207739e-05 2.360468766331470238e-04 3.078905866354766409e-04 -1.507354805694369865e-04 -3.773922077296279812e-04 -2.440993909980111471e-03 -4.458997053112809424e-03 2.606012633722268323e-02 1.044015460130455902e-01 1.298348997935730720e-01 6.473155567336380534e-02 7.395376542788593098e-03 -2.810476498810260577e-03 -6.143406251266957455e-04 7.125514192205972439e-05 -2.435860288891003220e-05 -7.028292514178130035e-05 -1.009691133060200417e-05 -8.951944993604510325e-96 4.940656458412465442e-324 4.940656458412465442e-324 4.940656458412465442e-324 -4.940656458412465442e-324 -4.940656458412465442e-324 -4.940656458412465442e-324 -3.965401257489680738e-06 -9.084575066776636243e-06 -1.697159093515259817e-05 -1.208601816100387258e-04 5.515993482695752089e-05 4.001928935905394065e-04 2.261401179552974662e-04 -4.094400518107133903e-04 -3.289533941564187162e-03 -2.775836643380279450e-03 3.378342410220092767e-02 1.052074482453917714e-01 1.259667123829083524e-01 6.729864897364930265e-02 1.285047918214343027e-02 -2.275396627695911150e-03 -1.361886981734613178e-03 -1.730916844940223623e-04 -9.389450149249507912e-05 -2.596632301023695761e-05 -6.261611023512212016e-06 -4.318352430008404519e-07 -4.940656458412465442e-324 -4.940656458412465442e-324 4.940656458412465442e-324 -4.940656458412465442e-324 4.940656458412465442e-324 -4.940656458412465442e-324 -7.269902305397730937e-06 -4.751327324181490015e-05 -6.637337357500332549e-05 2.181306977612763098e-05 1.159910554073300518e-05 1.764422716594949098e-04 3.759342220981734257e-04 -4.282315765647650612e-04 -3.085336555942249856e-03 -3.292751469986681827e-05 3.646925790720210309e-02 1.022847674160914377e-01 1.218972162695166755e-01 6.855974060329945996e-02 1.498211855937817485e-02 -1.509277946327116987e-03 -1.167177506378059637e-03 -1.300436486484670665e-04 2.311095606560011910e-05 1.008661935528616852e-05 -1.257720145239948553e-05 -1.144363393952231480e-05 -5.289981726760302021e-06 4.940656458412465442e-324 4.940656458412465442e-324 -4.940656458412465442e-324 -4.940656458412465442e-324 4.940656458412465442e-324 -1.976262583364986177e-323 -2.964393875047479265e-323 1.241605628413361504e-04 1.101081333934565151e-04 2.560440109537387063e-04 3.755726603198221653e-04 -6.192117731647888833e-05 -8.015787356708142537e-04 -2.851631935810143223e-03 3.064166283381851950e-04 2.969027769385681678e-02 7.729259376749084143e-02 8.977664489368379630e-02 4.765684068163451165e-02 9.281269379665130909e-03 -1.681615275781192173e-03 -5.291769202634041261e-04 -2.375223811176711884e-05 3.118848513008169602e-05 4.123659212888563337e-05 -1.025608702126995213e-06 -4.696208267634135931e-06 -5.613858159010937839e-06 4.940656458412465442e-324 4.940656458412465442e-324 4.940656458412465442e-324 4.940656458412465442e-324 -4.940656458412465442e-324 -4.940656458412465442e-324 -4.940656458412465442e-324 -4.940656458412465442e-324 -4.940656458412465442e-324 -4.390792963559307727e-297 -6.119674526350891154e-203 -5.100304653311084650e-05 -4.165855993526546616e-04 -8.132215701342084381e-04 1.819522144813263444e-04 8.280710552005505695e-03 2.083795988198047788e-02 2.161868171762266685e-02 1.040982927999931432e-02 2.828589034302767501e-03 -6.631092681517001142e-04 -3.498256339211287575e-04 -2.913378527879942188e-05 9.772392007425583719e-05 4.574311152411983302e-05 4.940656458412465442e-324 -4.940656458412465442e-324 4.940656458412465442e-324 -4.940656458412465442e-324 4.940656458412465442e-324 4.940656458412465442e-324 4.940656458412465442e-324 -4.940656458412465442e-324 -4.940656458412465442e-324 -4.940656458412465442e-324 4.940656458412465442e-324 -4.940656458412465442e-324 -4.940656458412465442e-324 4.940656458412465442e-324 -4.940656458412465442e-324 -3.218062150607021366e-06 -2.067361139177842843e-05 1.074955139227486362e-04 8.393161094348557344e-05 1.483198779800820296e-04 -8.651192050031424952e-06 -3.795285670230613326e-04 -7.250176388425625372e-05 -1.846446322829981105e-37 -4.940656458412465442e-324 -4.940656458412465442e-324 4.940656458412465442e-324 -4.940656458412465442e-324 -4.940656458412465442e-324 4.940656458412465442e-324 4.940656458412465442e-324 -4.940656458412465442e-324
-4.940656458412465442e-324 -4.940656458412465442e-324 -4.940656458412465442e-324 4.940656458412465442e-324 -4.940656458412465442e-324 4.940656458412465442e-324 4.940656458412465442e-324 4.940656458412465442e-324 -4.940656458412465442e-324 -4.940656458412465442e-324 -4.940656458412465442e-324 -4.940656458412465442e-324 -4.940656458412465442e-324 4.940656458412465442e-324 4.940656458412465442e-324 4.940656458412465442e-324 4.940656458412465442e-324 -4.940656458412465442e-324 -4.940656458412465442e-324 4.940656458412465442e-324 4.940656458412465442e-324 -4.940656458412465442e-324 -4.940656458412465442e-324 4.940656458412465442e-324 -4.940656458412465442e-324 4.940656458412465442e-324 4.940656458412465442e-324 4.940656458412465442e-324 -4.940656458412465442e-324 4.940656458412465442e-324 4.940656458412465442e-324 4.940656458412465442e-324 4.940656458412465442e-324 4.940656458412465442e-324 -4.940656458412465442e-324 -4.940656458412465442e-324 -4.940656458412465442e-324 -4.940656458412465442e-324 4.940656458412465442e-324 -4.940656458412465442e-324 -4.940656458412465442e-324 4.940656458412465442e-324 -4.940656458412465442e-324 -4.940656458412465442e-324 4.940656458412465442e-324 -4.940656458412465442e-324 4.940656458412465442e-324 -4.940656458412465442e-324 -4.940656458412465442e-324 4.940656458412465442e-324 4.940656458412465442e-324 4.940656458412465442e-324 -4.940656458412465442e-324 -4.940656458412465442e-324 -4.940656458412465442e-324 -4.940656458412465442e-324 4.940656458412465442e-324 -4.940656458412465442e-324 -4.940656458412465442e-324 4.940656458412465442e-324 4.940656458412465442e-324 4.940656458412465442e-324 4.940656458412465442e-324 4.940656458412465442e-324 -4.940656458412465442e-324 -4.940656458412465442e-324 4.940656458412465442e-324 -4.940656458412465442e-324 -4.940656458412465442e-324 -4.940656458412465442e-324 -1.482196937523739633e-323 -1.482196937523739633e-323 -9.881312916824930884e-324 -1.037537856266617743e-321 -1.590891379608813872e-321 -1.482196937523739633e-323 -1.482196937523739633e-323 -9.881312916824930884e-324 -4.940656458412465442e-324 -4.940656458412465442e-324 4.940656458412465442e-324 -4.940656458412465442e-324 4.940656458412465442e-324 4.940656458412465442e-324 -4.940656458412465442e-324 -4.940656458412465442e-324 4.940656458412465442e-324 4.940656458412465442e-324 4.940656458412465442e-324 4.940656458412465442e-324 -4.940656458412465442e-324 -4.940656458412465442e-324 -4.940656458412465442e-324 -4.940656458412465442e-324 -2.020830376540503236e-291 -4.412455317583798386e-291 -2.283389454616766820e-93 4.617710657374667608e-05 2.432745126812003111e-04 6.307116995438569499e-05 -7.123679637806974020e-06 -9.910026888135421708e-05 -2.340521841041570781e-04 -2.568443353774663000e-05 3.618448343116813736e-04 -1.175296316113516728e-04 -3.031707502101373521e-04 -4.979660331731061576e-04 -2.227807616631027378e-04 -4.493670533708345417e-32 -1.482196937523739633e-323 4.940656458412465442e-324 4.940656458412465442e-324 -4.940656458412465442e-324 -4.940656458412465442e-324 -9.395800110625385391e-281 -4.940656458412465442e-324 -4.940656458412465442e-324 -1.432531661381044092e-41 -2.046473801972944564e-41 -1.482196937523739633e-323 -3.230585107533707318e-05 -2.262689368183382185e-04 -8.740238941250869347e-04 -1.720073492819113991e-03 -2.695600271311170398e-03 -4.707422745436275376e-04 4.370349219179275684e-04 2.639980339396848187e-04 -6.769416403192874158e-04 -8.660762496499989360e-04 5.358778334111142421e-04 3.248664523947009542e-03 7.670139441042548266e-03 1.213105564439484474e-02 1.110603486775555218e-02 5.279165608632464465e-03 1.393573971335747026e-03 4.964579617582928588e-04 4.940656458412465442e-324 -4.940656458412465442e-324 4.940656458412465442e-324 -4.940656458412465442e-324 -1.026310473622156527e-280 -4.706014951105803240e-82 -1.323566704998510069e-82 4.637597783755111974e-05 7.741152846156776758e-05 4.193226470387878183e-05 3.565697231181231544e-04 -1.457881139303636995e-04 6.538886867966428162e-04 4.596401872632548645e-03 1.107490426920104166e-02 1.746318486970531783e-02 2.262568026454928743e-02 2.598272333078143273e-02 2.961891988815018237e-02 3.769907052113583706e-02 4.779518908214239886e-02 5.895226839788521994e-02 6.830763464341374491e-02 6.664125213021324101e-02 5.257758477981971240e-02 3.145340327038073647e-02 9.952519859088010748e-03 2.527409403034067050e-03 1.052686802042108167e-05 4.940656458412465442e-324 4.940656458412465442e-324 -9.881312916824930884e-324 -1.482196937523739633e-323 -4.940656458412465442e-324 1.464933982807602143e-04 3.110225948572846238e-04 1.849083571831962813e-04 6.637107995221865205e-05 3.502349831554618220e-04 2.653786572697314911e-03 1.093271190984411792e-02 2.566628590418720129e-02 4.438479963148815599e-02 6.095549053312965954e-02 7.635993586861991589e-02 8.979042354302943507e-02 1.052874930465196035e-01 1.154544781789139107e-01 1.172390048839408866e-01 1.140572618803306487e-01 1.055456598232615700e-01 9.119543996835939581e-02 6.892189865713194141e-02 4.329513018051053125e-02 1.600994502848662737e-02 3.015948820051230113e-03 -2.994751281444843374e-05 4.940656458412465442e-324 -4.940656458412465442e-324 -9.881312916824930884e-324 -4.940656458412465442e-324 -4.940656458412465442e-324 6.286166561825145475e-05 -3.659694672935796778e-05 -3.189201949211906546e-05 -9.312869659366046016e-05 2.338901669503797454e-03 1.225443197658497053e-02 3.571195611455010854e-02 6.588475599080541312e-02 8.818818806823432166e-02 1.069656638602600740e-01 1.195287412648904229e-01 1.269052675024293364e-01 1.274770737576612911e-01 1.232204442846061704e-01 1.147748417039784752e-01 9.864212536390148944e-02 8.137821795146098214e-02 6.197485340021345601e-02 4.370673793926344031e-02 2.273887941137400434e-02 7.086521150550284184e-03 6.422944267551635019e-04 -1.896112437040353162e-04 -4.940656458412465442e-324 4.940656458412465442e-324 -4.940656458412465442e-324 -4.940656458412465442e-324 -4.940656458412465442e-324 -1.423086012200778800e-05 -1.079613209071452735e-05 -2.174935348302390963e-04 7.281154933433228900e-04 8.752826259205814807e-03 2.780998648838593074e-02 6.426078422771409893e-02 9.529841199690249065e-02 1.092393019387389030e-01 1.124062389268087325e-01 1.087889320716351471e-01 9.856679067576895603e-02 8.492268328673475974e-02 6.807350587125142460e-02 5.372908882695182076e-02 3.885773578928462813e-02 2.534442325932983672e-02 1.227546122068478435e-02 6.067327821394144505e-03 2.742960996434150919e-03 -5.246339913214096611e-04 -3.824073213479563553e-04 -7.978520212996285553e-05 -4.940656458412465442e-324 -4.940656458412465442e-324 -4.940656458412465442e-324 -4.940656458412465442e-324 -2.065795363573735561e-05 7.623938829934348600e-06 -2.266071853260109197e-04 -2.182647654902897499e-05 3.235170247563563719e-03 1.714856698940096097e-02 4.575561977984309719e-02 8.695764454850217484e-02 1.064268348355943417e-01 9.972623162164707955e-02 7.978085119962663452e-02 5.774770506854662311e-02 3.787997514165609286e-02 2.263531393344636600e-02 1.193740408357484364e-02 2.912535873624108769e-03 -2.778603115196498323e-03 -2.693679892779015251e-03 -1.223266394380254128e-03 -1.824697794843062586e-03 -1.164727743237876142e-03 -1.310681439545615545e-05 -9.450189277797612177e-05 -1.806538568448982102e-104 4.940656458412465442e-324 4.940656458412465442e-324 -4.940656458412465442e-324 -4.940656458412465442e-324 -1.201423093025782220e-04 -3.083065652014293183e-05 -4.649991621081225640e-04 2.936767241674970576e-04 6.707089702903215947e-03 3.062488217288645773e-02 6.744693241434197850e-02 1.023399222376406431e-01 1.013195728130022177e-01 7.250607672681215476e-02 3.586478046808599940e-02 1.448772896622009185e-02 6.063526184496261656e-03 -7.490337663662593754e-04 -6.458845793111211639e-03 -1.049008040454344620e-02 -9.133968739052547581e-03 -5.878628388996079597e-03 -2.879554622319693488e-03 -1.783877300339640213e-03 -8.537319483633721423e-04 1.002013684383016082e-04 3.413492464627019868e-04 -2.567972179943940018e-104 4.940656458412465442e-324 4.940656458412465442e-324 4.940656458412465442e-324 -4.940656458412465442e-324 -1.380821111441395024e-04 -1.390330501156562760e-04 -3.177669439166649706e-04 1.640222192855878610e-03 1.321309139532908343e-02 4.734144708012246600e-02 8.515750828335032219e-02 1.050931080521985972e-01 8.512604518319903668e-02 4.410330294855997757e-02 8.202445429459540027e-03 -1.557212535353752524e-03 -4.708875442282330938e-03 -9.883748255331762170e-03 -1.175172372986215893e-02 -1.039777253824921734e-02 -6.860521637211263422e-03 -2.832845951523682397e-03 -2.311126599249106219e-03 -1.539105042490960433e-03 -9.240176987375078085e-04 -1.266121850276373225e-04 8.815424842493346661e-05 4.940656458412465442e-324 4.940656458412465442e-324 -4.940656458412465442e-324 4.940656458412465442e-324 -4.940656458412465442e-324 -7.719551095459748890e-05 -2.788609589867669736e-04 -6.535314370201020739e-05 3.930613954791083338e-03 2.250393668758303434e-02 6.107563479441578680e-02 9.574611516331706096e-02 1.042193398466949722e-01 7.500989053622518499e-02 3.289736506338142991e-02 4.437445987937467876e-03 -3.611292802824868971e-03 -9.767057813382338041e-03 -1.291849423401349867e-02 -1.101395897367253400e-02 -7.316731612013226485e-03 -3.080717524351106115e-03 -1.645367045679723902e-03 -1.724751973676134356e-03 -9.512701643359926674e-04 -1.459676647729187806e-04 -1.754799723318503009e-05 -9.256914429250464444e-07 -4.940656458412465442e-324 4.940656458412465442e-324 -4.940656458412465442e-324 -4.940656458412465442e-324 4.940656458412465442e-324 3.599713853638996855e-05 5.173441161640389446e-05 3.875606254233329782e-04 5.271409929020129392e-03 2.644572713242866399e-02 7.007533068533716714e-02 1.003534842567197494e-01 1.046720509101463636e-01 8.144374664498442440e-02 5.523840570760232827e-02 2.769757731889306573e-02 9.025675748807497276e-03 -1.565807502435849442e-03 -6.855779740729855271e-03 -5.112954902913582726e-03 -2.474380390269506364e-03 -1.401119326331660628e-03 -1.800391958105502848e-03 -1.604484331451634573e-03 -5.927513371335192119e-04 -1.463858501503385976e-04 -7.438630588487346568e-07 -4.940656458412465442e-324 4.940656458412465442e-324 -9.881312916824930884e-324 4.940656458412465442e-324 4.940656458412465442e-324 -4.940656458412465442e-324 5.753882659906493611e-05 3.810594440139266443e-04 4.973528704629506933e-04 5.297669556590178103e-03 2.450160720578460627e-02 6.374335031141085961e-02 9.188503247238537230e-02 1.028208614462381709e-01 1.028090452119767989e-01 9.108631487968917029e-02 7.105713691449862257e-02 4.896683797396410298e-02 2.652960537883431238e-02 9.334132951772081480e-03 2.014940784579108933e-03 -7.928518512784941629e-07 -1.303758288774918171e-03 -1.795409710920801158e-03 -1.063998874159143753e-03 -2.035864765294232738e-04 -4.320264249147722050e-05 -3.320817227003301158e-07 4.940656458412465442e-324 -4.940656458412465442e-324 -9.881312916824930884e-324 -4.940656458412465442e-324 4.940656458412465442e-324 -2.631407949186086035e-05 -1.922951962866756013e-05 7.986151859306788630e-04 4.493221091419383445e-05 3.129667801235062278e-03 1.735568421057846408e-02 3.967523899144648203e-02 6.260566654420157695e-02 7.697293171432804948e-02 9.051003421202405419e-02 9.743540304443985833e-02 9.694680404512111271e-02 8.652771704554848564e-02 6.709064110086701560e-02 3.784303337360387515e-02 1.219138874708697654e-02 9.981609945176334996e-04 -9.730155592250760033e-04 -1.245439383609296333e-03 -3.185108166143702933e-04 -7.683655715407944483e-05 -8.988345294422230641e-07 -4.870531932938173585e-08 -1.482196937523739633e-323 -4.940656458412465442e-324 -4.940656458412465442e-324 -6.235604434347134443e-215 -9.881312916824930884e-324 -6.932747866124872136e-05 -1.202969007657658654e-04 7.090011041828563629e-04 -1.879471956100255408e-04 3.118848840934884681e-03 9.229794696424025585e-03 1.724781991055971200e-02 2.480585069896180245e-02 3.073587389863330355e-02 4.124258883735181652e-02 5.797896223464098220e-02 8.070909841164643217e-02 9.852730154943900587e-02 9.847139474997498865e-02 6.815783466574233673e-02 2.504154913448538786e-02 3.774605878605245303e-03 -8.067524317218986718e-04 -5.555148844757796254e-04 -4.326826669039825337e-05 -4.459882167425521046e-06 -7.084410084273693750e-07 1.731703096704676105e-05 2.397742749283393227e-05 4.940656458412465442e-324 4.940656458412465442e-324 -4.092115410040333580e-215 -9.881312916824930884e-324 -9.715967812379363211e-05 -8.460567618877270666e-05 1.346738496081972911e-03 1.738947370718018151e-03 3.519806663962273940e-03 5.480029513507401508e-03 9.398479994432049024e-04 -3.690813758994980834e-03 -4.640774851021802795e-03 1.221802904334589115e-03 1.551172568556887822e-02 3.911825398190846292e-02 8.090714942670830523e-02 1.099056706555676943e-01 8.906204703194015027e-02 3.967517087436141232e-02 6.195194578964647279e-03 -5.789662449200514837e-05 -1.929898911343966262e-04 -3.157913701657402765e-05 -7.527185714540810594e-07 -1.948212773175269434e-07 5.328317220629753240e-05 7.726059969913143418e-05 -4.940656458412465442e-324 4.940656458412465442e-324 -4.940656458412465442e-324 -9.881312916824930884e-324 -3.351123693220704026e-05 -7.175882524669122727e-05 2.804232010865424264e-03 5.678783423680011828e-03 5.720196129065476497e-03 1.158785206808720823e-03 -5.580913194114816948e-03 -1.130472378286319010e-02 -1.146596947433232809e-02 -7.577069244168726549e-03 -2.110953560901681323e-04 1.653928239575907025e-02 6.438016647148439575e-02 1.116954280646202669e-01 1.018520725423805867e-01 4.925935822116711549e-02 8.004591626411091537e-03 -4.894261267563985085e-04 -4.607380277709995358e-05 -4.059548087152932964e-05 -1.948212773175269434e-07 -4.841559412797621096e-153 5.328317220629753240e-05 1.771665475859393244e-04 4.940656458412465442e-324 -4.940656458412465442e-324 4.940656458412465442e-324 -9.881312916824930884e-324 1.202983298807569195e-05 -8.426071838376554307e-05 3.330447888156444491e-03 1.139754162204097490e-02 1.421288274331077711e-02 4.569932379175944623e-03 -3.916170469658438943e-03 -6.993873711315333301e-03 -4.472443071591962818e-03 -9.630150692409105394e-04 9.291351000263477601e-04 1.727402647456599896e-02 6.813011740217922441e-02 1.148761663990580245e-01 1.017328022910551077e-01 4.670869186495692910e-02 7.883072881875200985e-03 -1.066299998857383596e-04 -3.396324451181073883e-04 3.920447553081192471e-05 -6.523564306022344313e-06 -3.025974632998513185e-154 5.328317220629753240e-05 2.064722922994031583e-04 4.940656458412465442e-324 -4.940656458412465442e-324 4.940656458412465442e-324 -1.482196937523739633e-323 3.631872006117010292e-04 1.632492513998537291e-04 5.792312971702334896e-03 1.813886254144957827e-02 2.817281774685464341e-02 2.741698376422319408e-02 1.820532729129762176e-02 1.144706364005032215e-02 1.034256908286365975e-02 1.397457449004413724e-02 2.287418742025914067e-02 4.773472621354894752e-02 9.073326345386151237e-02 1.148492917532276253e-01 8.979478691975928406e-02 3.697727254722864287e-02 5.096898277679003803e-03 5.736894877370887292e-05 -1.117405100711037327e-04 7.743957615060065964e-05 -8.045729310760874661e-05 -4.940656458412465442e-323 5.328317220629753240e-05 2.299301008343117010e-04 6.899355451443482559e-05 4.940656458412465442e-324 4.940656458412465442e-324 -1.482196937523739633e-323 6.636415034594807000e-05 2.082949814184002305e-05 8.287928959266537693e-03 2.366022313840511135e-02 4.195508235640858091e-02 5.647397538019671703e-02 5.547996882375937772e-02 4.889130175225538805e-02 4.360450817794012113e-02 4.688260147776776576e-02 6.480379012331947963e-02 8.951064874587306985e-02 1.115705605589812355e-01 1.026877730046886622e-01 6.508488968618370007e-02 1.931878280226858799e-02 6.875358776887196318e-04 -6.446537525206057478e-04 -2.164126281692444457e-05 9.982740021944473457e-05 -1.029735004629062968e-04 -3.282018640406100124e-153 3.729822054440835264e-05 1.824948648065694056e-04 -4.940656458412465442e-324 4.940656458412465442e-324 -4.940656458412465442e-324 -1.482196937523739633e-323 -3.432247546067028677e-05 4.116773360269012461e-05 6.560782838279900601e-03 2.237635081731121495e-02 4.378614059774922629e-02 7.241932720405538926e-02 8.786504569213889060e-02 8.862230191731593210e-02 9.064267193031763648e-02 9.758314860199344964e-02 1.085075313071865166e-01 1.128173696927445568e-01 1.037291717538607883e-01 7.179984214862257519e-02 3.098733159966744408e-02 4.172337247919060202e-03 -5.290452814397273319e-04 -1.716439442359337687e-04 6.196953455270897099e-05 1.707218379688338968e-04 -4.248478489871036616e-05 -5.865735442427902608e-153 -6.517483824919942426e-154 1.065663444125954070e-05 -4.940656458412465442e-324 4.940656458412465442e-324 4.940656458412465442e-324 6.905886619563250228e-05 6.598052414388640347e-05 6.327730571710863273e-04 3.488158595500001190e-03 1.484705649274617283e-02 3.424373714993678847e-02 6.053790004115739559e-02 8.658755347333438324e-02 1.028055567741836679e-01 1.122513713734789309e-01 1.129028325386633447e-01 1.108909482322108647e-01 9.530116146772962815e-02 5.993359103347896399e-02 2.184770778112725756e-02 5.180154239904958928e-03 -5.266833907512365556e-06 -1.836635862736740916e-04 1.956089047838509244e-04 1.256511618152160730e-04 2.170732141431398797e-05 -1.052926145244051793e-04 -3.328572096298357415e-153 -4.422578309767046725e-154 -3.377653005179202735e-122 4.940656458412465442e-324 4.940656458412465442e-324 -4.940656458412465442e-324 4.940656458412465442e-324 -1.482196937523739633e-323 1.632939919603524108e-04 6.204630448355404710e-04 3.550579364009960517e-03 1.346800807806939997e-02 2.876619193611201428e-02 4.535327304758678124e-02 6.314884036812855317e-02 7.496826057774770569e-02 7.316070614408966277e-02 5.936073411715592912e-02 3.764378572323590771e-02 1.354005976400586390e-02 2.145290370749141241e-03 4.207194330686315283e-04 -2.183664926314976638e-04 1.071802705159011839e-04 2.345841517977850376e-04 1.523450636832171122e-04 -3.533597332428759516e-05 -9.241716100198304310e-06 -1.016960722886494306e-176 -4.940656458412465442e-324 4.940656458412465442e-324 4.940656458412465442e-324 4.940656458412465442e-324 4.940656458412465442e-324 -4.940656458412465442e-324 -1.482196937523739633e-323 -3.933454730176845344e-238 1.716642558710818924e-05 4.700326162881107424e-05 4.543101803196947014e-04 2.953013523756107053e-03 7.015481157550672656e-03 9.449705757638459866e-03 9.200939936363181429e-03 6.858256442760218320e-03 4.330700326857912959e-03 1.605272964083673390e-03 -1.806752874855205109e-04 -1.292852517627496789e-04 -8.128783336438881848e-05 -1.026606310149021648e-04 -1.204611320761397766e-04 -6.890337129916011989e-05 -4.940656458412465442e-324 -4.940656458412465442e-324 -4.940656458412465442e-324 4.940656458412465442e-324 4.940656458412465442e-324 4.940656458412465442e-324 -4.940656458412465442e-324 4.940656458412465442e-324 4.940656458412465442e-324 4.940656458412465442e-324 -4.940656458412465442e-324 -4.940656458412465442e-324 4.940656458412465442e-324 -1.482196937523739633e-323 -1.482196937523739633e-323 -1.482196937523739633e-323 9.075863952090641989e-05 2.589469777796282301e-04 3.485231972579207015e-05 -2.115992479044135276e-04 -7.978991721356608943e-05 -3.566199449685475240e-06 -3.152886985708228420e-06 -1.482196937523739633e-323 -1.482196937523739633e-323 -9.881312916824930884e-324 -4.940656458412465442e-324 -4.940656458412465442e-324 -1.976262583364986177e-323 -1.976262583364986177e-323 -1.976262583364986177e-323 4.940656458412465442e-324 4.940656458412465442e-324 4.940656458412465442e-324 -4.940656458412465442e-324 -4.940656458412465442e-324 -4.940656458412465442e-324 4.940656458412465442e-324 4.940656458412465442e-324 4.940656458412465442e-324 -4.940656458412465442e-324 4.940656458412465442e-324 4.940656458412465442e-324 -4.940656458412465442e-324 -4.940656458412465442e-324 -4.940656458412465442e-324 4.940656458412465442e-324 4.940656458412465442e-324 -4.940656458412465442e-324 4.940656458412465442e-324 -4.940656458412465442e-324 -4.940656458412465442e-324 4.940656458412465442e-324 4.940656458412465442e-324 4.940656458412465442e-324 -4.940656458412465442e-324 -4.940656458412465442e-324 4.940656458412465442e-324 4.940656458412465442e-324 4.940656458412465442e-324 -4.940656458412465442e-324 4.940656458412465442e-324 -4.940656458412465442e-324
0.000000000000000000e+00 0.000000000000000000e+00 0.000000000000000000e+00 0.000000000000000000e+00 0.000000000000000000e+00 0.000000000000000000e+00 0.000000000000000000e+00 0.000000000000000000e+00 0.000000000000000000e+00 0.000000000000000000e+00 0.000000000000000000e+00 0.000000000000000000e+00 0.000000000000000000e+00 0.000000000000000000e+00 0.000000000000000000e+00 0.000000000000000000e+00 0.000000000000000000e+00 0.000000000000000000e+00 0.000000000000000000e+00 0.000000000000000000e+00 0.000000000000000000e+00 0.000000000000000000e+00 0.000000000000000000e+00 0.000000000000000000e+00 0.000000000000000000e+00 0.000000000000000000e+00 0.000000000000000000e+00 0.000000000000000000e+00 0.000000000000000000e+00 0.000000000000000000e+00 0.000000000000000000e+00 0.000000000000000000e+00 0.000000000000000000e+00 0.000000000000000000e+00 0.000000000000000000e+00 -4.940656458412465442e-324 -4.940656458412465442e-324 -4.940656458412465442e-324 -4.940656458412465442e-324 0.000000000000000000e+00 0.000000000000000000e+00 0.000000000000000000e+00 3.386025682695465941e-05 4.079354751056909578e-05 6.127094092496564088e-06 0.000000000000000000e+00 0.000000000000000000e+00 0.000000000000000000e+00 0.000000000000000000e+00 0.000000000000000000e+00 0.000000000000000000e+00 0.000000000000000000e+00 0.000000000000000000e+00 0.000000000000000000e+00 0.000000000000000000e+00 0.000000000000000000e+00 0.000000000000000000e+00 0.000000000000000000e+00 0.000000000000000000e+00 0.000000000000000000e+00 0.000000000000000000e+00 0.000000000000000000e+00 0.000000000000000000e+00 -4.940656458412465442e-324 -1.949222148395776654e-138 -4.202451420853283725e-138 1.974166837067365256e-05 3.902422817458742389e-05 2.056884953142327899e-06 5.371457092097785995e-05 1.485376819109321172e-04 8.618643711215382319e-05 2.893301098208215545e-05 -2.413512712703868166e-05 -2.514635997940850123e-05 -1.571610225108046515e-06 -4.940656458412465442e-324 0.000000000000000000e+00 0.000000000000000000e+00 0.000000000000000000e+00 0.000000000000000000e+00 0.000000000000000000e+00 0.000000000000000000e+00 0.000000000000000000e+00 0.000000000000000000e+00 0.000000000000000000e+00 1.063163187744634772e-05 2.531340923201509688e-06 0.000000000000000000e+00 -3.458459520888725809e-323 -5.682014381606577604e-06 -2.586743466487243572e-05 -3.154539584855779380e-05 -4.132787264322349588e-05 -7.136524639255733627e-05 -4.835867915070132800e-05 9.617512857684152938e-06 8.340855298379161974e-04 1.432675344414890495e-03 1.312600515344766131e-03 5.574774401353107004e-04 1.148201945063892412e-04 -2.285276348846682578e-05 9.309984582438068700e-07 1.298302113227573468e-05 -5.165690107250875196e-32 0.000000000000000000e+00 0.000000000000000000e+00 0.000000000000000000e+00 0.000000000000000000e+00 0.000000000000000000e+00 0.000000000000000000e+00 0.000000000000000000e+00 0.000000000000000000e+00 3.645130929410167649e-05 8.859693231205274802e-06 0.000000000000000000e+00 -1.449835255488520408e-05 -4.082300244911423359e-05 -8.609296890710140308e-05 -1.127092255176012647e-04 1.539585498887010261e-04 1.599077720788622545e-03 6.790272110381092262e-03 1.935149297162633286e-02 3.811787027747075285e-02 5.353386564448323753e-02 4.977716765014334604e-02 2.314134566213372005e-02 1.844006855797638948e-04 -3.244898476208158376e-03 -5.515083476644160607e-04 5.481291986460627572e-05 6.099071313722717174e-05 2.698750216254547436e-05 -4.001637507743988577e-06 -1.482196937523739633e-322 -1.482196937523739633e-322 0.000000000000000000e+00 0.000000000000000000e+00 0.000000000000000000e+00 0.000000000000000000e+00 5.062681846403019376e-06 1.265670461600754844e-06 0.000000000000000000e+00 -4.828141683125334552e-05 -7.233103133059519136e-05 -7.305811451920767897e-05 7.093327141839591687e-05 5.161007111005300445e-04 3.807087903723320801e-03 1.449275719301556208e-02 3.851382912629486982e-02 7.510542474638724764e-02 1.045830662945064493e-01 9.726465510287780891e-02 4.837528874900553361e-02 4.531841480640295787e-03 -4.806225173190524329e-03 -7.105077464306607492e-04 3.361890283833886869e-05 3.371557699678739712e-05 9.112291746377180706e-06 -3.706258471215393753e-05 -7.004402224547350819e-06 -1.482196937523739633e-322 -4.940656458412465442e-324 0.000000000000000000e+00 0.000000000000000000e+00 0.000000000000000000e+00 0.000000000000000000e+00 -3.241090789973841955e-06 -6.915940661912692549e-06 -5.112442254872544782e-05 -1.409298832716112391e-04 -1.229167508126899203e-04 1.793280841290550965e-04 1.035895318106016573e-03 4.442941691146785367e-03 1.623509571410580721e-02 4.493062476657207899e-02 9.144023887611789358e-02 1.283776804997114052e-01 1.152166693543675707e-01 5.650326411442372493e-02 6.861099516691298097e-03 -4.228559670597743791e-03 -3.978914775272748730e-04 8.829980707088016796e-05 5.923550187771277369e-05 -3.860421449671617029e-05 -1.410419665756891946e-05 -9.226952930413363151e-06 -7.042504742255647025e-67 -4.940656458412465442e-324 0.000000000000000000e+00 0.000000000000000000e+00 0.000000000000000000e+00 0.000000000000000000e+00 8.858084765803531506e-06 9.329824355005789850e-06 -8.357423368984149496e-05 -1.211492858185826568e-04 -1.424602542789568465e-04 1.909169471638179848e-04 1.108403973515676268e-03 3.766391103978033658e-03 1.468236997045086444e-02 4.508955021448251416e-02 9.836405177676507683e-02 1.398730225445273812e-01 1.202947100609445402e-01 5.637223141262890508e-02 5.938860836705240481e-03 -3.059211124565214962e-03 -5.518006680745364968e-05 2.535579491801943683e-05 4.349815310186984834e-05 6.184032866103949578e-06 -1.121421211884260323e-05 -2.994804276034030769e-07 -1.414419019663104667e-66 0.000000000000000000e+00 0.000000000000000000e+00 0.000000000000000000e+00 0.000000000000000000e+00 0.000000000000000000e+00 3.083501466486483441e-05 -1.875475548027651630e-05 -9.917815521943397700e-05 -4.966574938751712806e-05 -7.329547182474024339e-05 1.328644018158007392e-05 6.733610585216177067e-04 2.499561501889951010e-03 1.203591410655468867e-02 4.236033687088257976e-02 1.014459000037855191e-01 1.479448192469742518e-01 1.223927370195408149e-01 5.312198260197058958e-02 3.820339764389201528e-03 -1.479577298143171108e-03 -2.384285323116092556e-05 -6.612053806479355038e-05 6.247650494689338313e-05 8.673363326049102662e-05 2.272655530622213322e-05 -3.008034204388903054e-08 -6.628239757417059787e-67 0.000000000000000000e+00 0.000000000000000000e+00 0.000000000000000000e+00 0.000000000000000000e+00 0.000000000000000000e+00 0.000000000000000000e+00 -5.086002429392395965e-05 -6.044429726915015195e-05 2.179769679430201438e-05 -7.334457379356500406e-06 2.537716399923698230e-05 5.345596197845329297e-04 2.364630599854524069e-03 1.033946250851257298e-02 4.039099043867157984e-02 1.051818414297344961e-01 1.541858210135401974e-01 1.240897617874610753e-01 4.901093023040597324e-02 2.327368430965696955e-03 -6.137356269418819997e-04 7.128015884516007011e-05 -8.536151820883621888e-05 1.672955648738497930e-04 1.772694523333526856e-04 9.163048439292006389e-05 8.337802588249974345e-06 1.820673020769820978e-05 3.081138958225852123e-06 0.000000000000000000e+00 0.000000000000000000e+00 0.000000000000000000e+00 0.000000000000000000e+00 0.000000000000000000e+00 -1.400400389893151309e-05 1.912272024328144591e-05 8.098511571914010585e-05 1.589746763485142087e-04 4.650402751936232666e-04 1.109480585622769607e-03 2.838590591055560174e-03 8.915753409229402321e-03 3.802852992153194639e-02 1.092313767177142125e-01 1.575502916754315808e-01 1.256624623841457455e-01 4.357466691478716070e-02 1.968148659260955582e-03 -3.722836930790986561e-05 -2.607257746916707592e-06 -1.643066347570655152e-05 1.432599862888845124e-04 1.551241997337530294e-04 7.200514102529052504e-05 -9.881312916824930884e-324 3.987625381161881937e-05 3.532966529578808527e-05 1.018527839598787102e-05 0.000000000000000000e+00 0.000000000000000000e+00 0.000000000000000000e+00 0.000000000000000000e+00 3.045162100847373021e-05 6.496582201085170582e-05 8.454335393671054031e-05 2.433244476512437136e-04 7.230555043224737646e-04 1.209331183177327377e-03 2.566012072155016231e-03 7.590941100680476464e-03 3.599390975830211309e-02 1.130980117068141888e-01 1.602145011628703652e-01 1.267983664275707245e-01 3.981686196770786723e-02 2.290018109161219128e-03 4.598671941137696343e-05 8.150685485316785581e-05 3.584620209911957314e-05 1.021672114893882710e-04 1.321131269843985826e-04 8.139802653558672531e-05 2.172732747461457814e-05 7.665529239029351299e-05 4.149443906178067263e-05 2.159009021416773502e-05 0.000000000000000000e+00 0.000000000000000000e+00 0.000000000000000000e+00 0.000000000000000000e+00 1.311878193809376146e-05 1.036214685731006859e-05 6.015392150405179461e-05 1.033395868746986263e-04 4.738860528420386019e-04 8.866678179263041059e-04 2.050009004652939698e-03 6.562021010598497253e-03 3.340344376322244152e-02 1.154493469369871628e-01 1.614227572400935284e-01 1.265789292109106567e-01 3.725132674941327576e-02 2.330734212139303190e-03 1.780548374189994598e-04 1.370262270357342871e-04 7.173090701446233584e-05 1.653437661550495109e-04 6.267195498025967615e-05 1.885012499549261180e-05 3.822583649003530011e-05 6.326229582515604328e-05 5.041863749824113571e-06 2.572630021925320241e-05 5.317971499924369389e-06 0.000000000000000000e+00 0.000000000000000000e+00 0.000000000000000000e+00 5.123574210441491993e-05 9.817989826187877839e-06 1.705991120770196460e-05 1.139526722641446166e-04 3.524741704102329356e-04 8.842827491054656075e-04 1.791738081981020898e-03 5.915557945357852870e-03 3.285065153414470918e-02 1.178422996021500496e-01 1.628611144445364645e-01 1.259497597139533631e-01 3.427322427619292067e-02 2.379177314456766296e-03 1.823301736120935845e-04 -5.671350195806332137e-05 -4.229106660853814190e-05 9.833190726306290252e-06 -2.042202204310091626e-06 6.100993641103182995e-05 6.290549772839362428e-05 2.419904142839429450e-05 3.921449583196533907e-06 0.000000000000000000e+00 0.000000000000000000e+00 0.000000000000000000e+00 0.000000000000000000e+00 -1.395662569431483130e-06 -1.443897528219007511e-05 4.558854683055400749e-06 9.576749133251345560e-07 8.074304307965257980e-05 4.275709556659615146e-04 8.390700132147632965e-04 1.405299511445785290e-03 4.891749424324322131e-03 3.107495292602600878e-02 1.192735247881463873e-01 1.639197017169181647e-01 1.247203706990542976e-01 3.272115349640531551e-02 2.738749446980289978e-03 2.061606935174267459e-04 2.740867411339891383e-05 1.172084256580282270e-05 -1.709908477841361080e-06 2.242438642155372550e-05 3.439818476211754360e-05 -5.266657812933904404e-06 -2.340807639927416510e-05 -1.883572627963801453e-265 0.000000000000000000e+00 0.000000000000000000e+00 0.000000000000000000e+00 0.000000000000000000e+00 -3.755101622922371878e-06 -2.934891568338721576e-05 -3.809723313496747192e-05 -3.865720639420247551e-05 8.090962160099601157e-05 3.030455614873042930e-04 4.987371893748318618e-04 9.115556338925347992e-04 3.900612772198786167e-03 3.064816784465900987e-02 1.209400326372756657e-01 1.638526224966291855e-01 1.233830452518945020e-01 3.238343547739876149e-02 3.012516945961836445e-03 2.081698082044005315e-04 -1.819567187664320311e-05 -2.982428669702024109e-05 3.661220512198589907e-05 5.990632379906124538e-05 -3.413050411783500086e-05 6.769618041619939245e-06 -2.876416167707419885e-06 -7.534290511855043297e-266 0.000000000000000000e+00 0.000000000000000000e+00 4.896564948784711819e-06 0.000000000000000000e+00 -1.743965349633371356e-06 -9.886997076538946245e-06 -2.266883743717854256e-05 -2.531616951437817747e-05 6.959356510230973666e-05 1.724367922547368176e-04 3.829519550639475509e-04 4.659284505481317909e-04 2.638255531023587890e-03 3.145400141398353722e-02 1.211001217536643026e-01 1.633290124820408751e-01 1.211457921884695893e-01 3.341563849496773098e-02 3.894730701129565757e-03 2.313982137744495136e-04 -2.782704033850847317e-05 1.608036010597445364e-05 6.091460054522556159e-05 7.380163946572392377e-05 4.351233148633644677e-05 1.957472477659995180e-05 -9.881312916824930884e-324 1.142791911146281527e-05 3.516282803527021453e-06 0.000000000000000000e+00 3.213370747639963770e-06 0.000000000000000000e+00 0.000000000000000000e+00 -2.119024494501554124e-248 3.301687726546636935e-05 7.488190035680221943e-05 2.731330598799672452e-05 -1.382721832185783877e-05 2.392037777469692374e-04 3.093905047700700253e-04 1.095361350121815212e-03 3.388787424768098522e-02 1.209855299755969310e-01 1.622939824147532351e-01 1.181798651280928231e-01 3.577555585309273589e-02 5.401513170612603186e-03 6.747578202463754915e-04 4.252309255878944350e-04 2.504859408045140442e-04 1.964206199943081376e-04 9.165690740055872207e-05 3.027327059640313344e-05 5.429763423711664788e-05 5.452638287083543130e-05 2.818930677449967728e-05 6.695698413272217936e-06 0.000000000000000000e+00 0.000000000000000000e+00 0.000000000000000000e+00 0.000000000000000000e+00 0.000000000000000000e+00 3.939494379149577737e-05 1.590097096845025386e-04 2.071802368836119879e-04 1.361472745805262401e-04 2.780804622975759739e-04 -7.234999010764063131e-05 2.361309713806605641e-04 3.720935712419115582e-02 1.206095257089546541e-01 1.610377397434581137e-01 1.153908697408330686e-01 4.005728385353042598e-02 7.503935218537246231e-03 1.379941499027484680e-03 7.372646910755451585e-04 3.933315612874441138e-04 1.147943988462212943e-04 1.897405303296977483e-05 4.668604244482705157e-05 5.205155951642319708e-05 6.463432439725354402e-06 2.535377752700895964e-05 5.602294782690572035e-05 0.000000000000000000e+00 0.000000000000000000e+00 7.811215295623267132e-06 5.138957431331083691e-06 5.435267830698641941e-06 3.494198323475582375e-05 1.626113810428259055e-04 2.781601046544105783e-04 3.738837470427456276e-04 4.298708506546152180e-04 -6.814801490222951964e-04 1.271885316127394278e-04 4.189656990498970973e-02 1.192176746852558616e-01 1.571391075725473985e-01 1.123055869534955731e-01 4.482411081410665743e-02 1.031782446053758351e-02 2.256456760032058122e-03 9.537265782785228413e-04 4.715114640756737558e-04 1.844152450036964236e-04 -3.457621582624586132e-05 1.351272892288360604e-05 -7.969213276286303232e-06 -1.976262583364986177e-323 -4.940656458412465442e-324 3.293641787177149159e-05 0.000000000000000000e+00 0.000000000000000000e+00 1.850024675279195092e-06 1.233349783519463889e-06 6.039186478554044248e-07 7.199472658086653314e-05 1.114379970880375530e-04 2.869633165190940802e-04 5.627761588524271639e-04 4.408765127384940631e-04 -1.940519494884635366e-03 2.166535695940456554e-03 4.620051594142147305e-02 1.181573931208060174e-01 1.511166323354148910e-01 1.106817850969297884e-01 5.083423445964126153e-02 1.498340465232952425e-02 3.670345126200959176e-03 1.012118908437068410e-03 4.726910498843087246e-04 -9.777082640445872722e-07 -2.115896111443435837e-04 -1.355932340581562532e-04 -8.123067844665286807e-05 -1.169493654020558805e-06 -4.455107908268943430e-82 0.000000000000000000e+00 -3.043694810927219218e-06 -9.511546284147571438e-07 0.000000000000000000e+00 0.000000000000000000e+00 0.000000000000000000e+00 9.354011795491055752e-05 9.857110318964556464e-05 1.867592295468496733e-04 4.183190777960249973e-04 -6.982696128956971987e-05 -2.932971532475429997e-03 5.572219407546908330e-03 5.002979200898098611e-02 1.157945015844363823e-01 1.444234383550069278e-01 1.108658613262421405e-01 5.812071662367807034e-02 2.071330272157866775e-02 5.365080744505886130e-03 1.427709058821467758e-03 3.104226559198803984e-04 -1.053388840153523349e-04 -1.775430856657678593e-04 -1.445103047715882126e-04 -6.578933663766436209e-05 -1.398578126773070982e-05 3.135255365272783117e-05 0.000000000000000000e+00 -2.948579348085747336e-06 -9.511546284147571438e-07 0.000000000000000000e+00 0.000000000000000000e+00 -2.861460004365244472e-26 2.268377664654036951e-05 3.832089887226225949e-05 1.620716111041353269e-04 3.243194715467786170e-04 -8.203275761941076528e-04 -3.775592371935977166e-03 6.586243426331662987e-03 4.898684983334083975e-02 1.086385528614084994e-01 1.347663636296899670e-01 1.070203762098431571e-01 6.085279253955769990e-02 2.435755097470359773e-02 6.934047766997271725e-03 1.559707858588647682e-03 3.242478887799313259e-04 -1.072878581804585720e-05 -8.623411547840918506e-05 -8.991857259368255353e-05 -1.554715469490082564e-05 -1.588632944253877703e-05 -4.940656458412465442e-324 0.000000000000000000e+00 0.000000000000000000e+00 0.000000000000000000e+00 0.000000000000000000e+00 0.000000000000000000e+00 0.000000000000000000e+00 3.006272608963339287e-05 3.990850822495188056e-05 6.791213116803256782e-05 6.574955627153078821e-05 -9.494236263184975197e-04 -4.391973320906443316e-03 2.123081688713810561e-03 3.795490484566128170e-02 8.654460950047099255e-02 1.062670909643517736e-01 8.515145887551346660e-02 4.758370395963602839e-02 1.796433606259232457e-02 4.407551056668753027e-03 9.252022003734018674e-04 2.813392785200674942e-04 -3.763913134572732078e-05 -1.051931944551026758e-04 -7.151986907687324217e-05 -2.203395309188957397e-05 -8.399115979301191251e-323 1.410462438235234554e-05 0.000000000000000000e+00 0.000000000000000000e+00 0.000000000000000000e+00 0.000000000000000000e+00 0.000000000000000000e+00 0.000000000000000000e+00 -9.881312916824930884e-324 -8.283676402801070970e-06 -3.892452231923400888e-05 -3.232296829561474372e-05 -2.456425534759015209e-04 -1.190814593248776601e-03 -2.358871457249739172e-04 9.041508056730896206e-03 2.472903510335931754e-02 3.187693903080274227e-02 2.391134657219258844e-02 1.183605934317373022e-02 3.998843754919498630e-03 9.880785022422927666e-04 2.798991926955351041e-04 3.935811598656856018e-05 1.920085599943120456e-05 -4.743520323945198342e-05 2.118143192975328870e-05 -8.893181625142437795e-323 2.913076833231714242e-05 5.041863749824113571e-06 0.000000000000000000e+00 0.000000000000000000e+00 0.000000000000000000e+00 0.000000000000000000e+00 0.000000000000000000e+00 0.000000000000000000e+00 0.000000000000000000e+00 0.000000000000000000e+00 -2.825142745639755616e-26 -1.147007954729724805e-25 1.057777842483296484e-05 -2.831941686441872104e-05 -2.836192131133547523e-05 3.996697383555547684e-04 1.403195644645799075e-03 1.914772746104672317e-03 9.591407759739143920e-04 1.681580248420862179e-04 1.467414689553870215e-05 -1.089158627900518431e-26 -1.823949855335791636e-27 -4.940656458412465442e-324 0.000000000000000000e+00 0.000000000000000000e+00 0.000000000000000000e+00 0.000000000000000000e+00 0.000000000000000000e+00 0.000000000000000000e+00 0.000000000000000000e+00 0.000000000000000000e+00 0.000000000000000000e+00 0.000000000000000000e+00 0.000000000000000000e+00 0.000000000000000000e+00 0.000000000000000000e+00 0.000000000000000000e+00 0.000000000000000000e+00 0.000000000000000000e+00 0.000000000000000000e+00 2.170080381688494625e-05 2.600962047354276517e-05 -5.882256979476976428e-05 -4.766385037307703656e-05 1.447400027291702155e-04 1.347386263741371520e-04 2.665116230012034044e-05 -8.279293416259921715e-06 -4.940656458412465442e-324 0.000000000000000000e+00 0.000000000000000000e+00 0.000000000000000000e+00 0.000000000000000000e+00 0.000000000000000000e+00 0.000000000000000000e+00 0.000000000000000000e+00 0.000000000000000000e+00 0.000000000000000000e+00 0.000000000000000000e+00 0.000000000000000000e+00 0.000000000000000000e+00 0.000000000000000000e+00 0.000000000000000000e+00 0.000000000000000000e+00 0.000000000000000000e+00 0.000000000000000000e+00 0.000000000000000000e+00 0.000000000000000000e+00 0.000000000000000000e+00 0.000000000000000000e+00 0.000000000000000000e+00 -4.940656458412465442e-324 -4.940656458412465442e-324 0.000000000000000000e+00 0.000000000000000000e+00 0.000000000000000000e+00 0.000000000000000000e+00 0.000000000000000000e+00 0.000000000000000000e+00 0.000000000000000000e+00 0.000000000000000000e+00 0.000000000000000000e+00 0.000000000000000000e+00 0.000000000000000000e+00 0.000000000000000000e+00 0.000000000000000000e+00
6.448132337030569632e-264 -1.373184644182987060e-264 -2.775354904868061627e-264 4.618023938141484216e-264 -4.276323844708784568e-264 7.436580015982906904e-264 2.052126733448349881e-264 5.403728588110804007e-264 8.440519654432320467e-266 3.181646306840545424e-264 -1.225687730092837871e-264 -1.736479326569350148e-264 -7.020283931092697897e-264 4.710722445014038504e-265 -4.837378469891822791e-264 -6.252465044492147930e-264 3.211581197460819672e-264 -3.276763480727161517e-264 -8.885643457998100836e-264 -2.406258766210672087e-264 -2.649201662755584744e-264 8.547670021976889882e-265 6.616987437652638431e-265 -2.739096545190797501e-264 -1.757944404314572678e-264 9.320446781055744514e-266 -6.503531631289905596e-264 1.905773670830670352e-264 -8.861948477248515894e-265 9.792990587055656869e-264 -1.235926218754319429e-264 1.711671419733895884e-264 2.406127110599884134e-264 9.946720360875431225e-265 -8.548540410812972975e-05 -2.544447910512563919e-04 -2.282963145005341605e-04 -2.723887843602326698e-04 -6.677714784577256420e-04 -5.704290506518589106e-04 -8.781190934478279395e-04 -6.423451522528071536e-04 -3.905991099183595623e-04 -1.302666511466526317e-04 -9.484810818654309703e-12 -4.132129238086701353e-114 -1.167316285443265361e-115 -1.167316233724561388e-115 -1.562549289237587683e-116 -8.505731890980014148e-264 -1.163368058702100871e-04 -1.625414947264633696e-04 -7.031681652532052719e-264 -6.616689658311080779e-264 -1.992786683994166818e-264 6.473101388200680359e-264 2.120053475397828229e-264 2.023877474640170926e-264 7.169770441384301733e-264 -3.541270390162052602e-264 -1.021211880335859307e-37 -1.492540440490880869e-37 -2.111992336789082430e-05 -2.031535485863776569e-04 -2.559342441400434473e-04 -5.148839539566823619e-04 -1.476585421964932924e-03 -2.167404379238434872e-03 -2.825821279409045442e-03 -1.828128309203348950e-03 -6.636131143215425387e-04 -5.744134408458362534e-04 -4.297829119065968103e-04 -1.906989876440437471e-04 -4.174075671405918104e-05 5.551082757339869788e-04 3.462556571410020526e-04 -4.991562285603590647e-232 -1.105612197631781151e-04 -1.254127268955451506e-04 4.409577596333691952e-264 -2.043452512943976330e-264 -2.297327938115394511e-264 1.006130061413539621e-265 8.654363266281724762e-267 -1.176565701599196441e-264 5.732389715113507706e-264 3.807818468817649010e-264 -6.677154602195949115e-38 -9.819345003229362850e-38 -3.187582327016212880e-27 -1.277252508439114258e-04 -6.684109071658843554e-05 -4.714034855606242191e-04 -2.333390355881273959e-03 -2.596229224774328301e-03 -3.090097649936441454e-03 -1.855244121261418041e-03 -6.303988981266698275e-04 -1.290319780990166259e-03 1.504826867096597175e-04 1.056241927464298368e-03 1.847909384982286945e-03 3.256567581650271059e-03 8.222853295468380251e-04 -3.566290991336162696e-07 -2.062709323939887542e-05 -8.372096684308325574e-131 -3.457621587410236065e-208 -9.878918821172292311e-209 1.112633854662942214e-264 3.023490818881621149e-264 7.193165854333845872e-264 1.530640360191894864e-264 1.745601720579570941e-264 -6.114732414555946733e-264 -2.493742881943701998e-148 -3.815426609373845688e-147 -1.099991690318004863e-15 -1.393374057244328214e-04 1.113238479652156870e-03 1.415461003677671685e-03 2.524875303392367862e-03 7.941066757677646415e-03 1.127682221345852921e-02 9.931078768705503199e-03 3.075872389610445363e-03 -1.053632767436646659e-03 1.708679156393249536e-03 6.519445785977733866e-03 1.662940463094833912e-02 1.381394886274418289e-02 1.646286274818675689e-03 -8.266050468649440049e-04 -7.593102017134865640e-05 -4.283283428699495641e-06 -5.104865725037153358e-147 -9.384972880113768794e-208 1.511017456623810645e-264 1.058505685604919290e-263 4.600572837485951627e-264 1.496547625963861423e-264 7.362261419341524409e-265 -8.372784881725428938e-258 -2.601403805957556452e-11 -8.585077375589274511e-05 -2.977564155331390797e-04 -5.623293787336393693e-04 1.080749367333841502e-03 7.084118772807100790e-03 1.723775813820445715e-02 3.556591621538124359e-02 3.371859684984997163e-02 2.473181818181915612e-02 9.548716841659176877e-03 1.201851576527533704e-03 9.806038246882519197e-03 2.536094124062626340e-02 3.848439963634506938e-02 2.143655370961506865e-02 4.578666475271205537e-03 -1.041701548863616360e-03 -5.137561197685093246e-04 -2.356452461012061570e-04 -7.458177922031800002e-05 -9.384972880113768794e-208 -5.483342441389934378e-264 -2.356211951843043465e-264 7.577064286163292927e-264 -2.079457642669467331e-265 1.037188094340425699e-264 -1.617456602193556076e-17 -6.549342266200700144e-06 -1.786987929529731966e-04 -5.552088389301653142e-04 -6.680245622914119177e-04 1.751008282077935524e-03 1.473346962347348542e-02 3.814637651907442500e-02 4.890238886609723362e-02 4.880596393322217397e-02 3.604195188086793677e-02 1.090783900071226088e-02 2.540000012635664807e-03 1.378795053055226726e-02 4.012821090019919740e-02 6.373522985849093547e-02 3.626762424156487058e-02 3.570175125756787447e-03 -1.672570160642579060e-03 -1.228330864473475576e-03 -6.926714726370742899e-04 -2.858435277123466201e-04 -1.010923681089848134e-06 -4.732072353502188027e-264 7.754367227022283791e-265 4.143132560591737733e-264 5.554133478725907940e-264 -6.210121483027156480e-265 -4.116695903499757373e-05 -2.570380619572999281e-04 -5.038991994324314334e-04 -1.205890702417587680e-03 -6.605440369499450805e-05 1.176186130529684789e-03 2.275791989143075011e-02 5.258698171506932112e-02 6.982204335636932324e-02 6.993582745919005306e-02 4.153444637004961859e-02 1.029983648578324841e-02 3.586782908739980348e-04 1.938312901775295083e-02 6.037519508716948646e-02 8.400098429135842426e-02 4.833981374907384693e-02 4.984920357234922522e-03 -1.512862094637942465e-03 -2.288177868261795974e-03 -8.687283988513253745e-04 -4.333549266548376595e-04 -7.466939385838489759e-05 -7.215667161702533258e-237 -4.009044103989468809e-265 -3.909661365899185975e-264 -2.556778629228704556e-264 -1.252454837848896762e-265 -9.356127053400118744e-05 -2.923036866931039059e-04 -1.009388764322916758e-03 -1.633703144492272986e-03 -9.976825767741520461e-04 -9.916596098006591736e-04 2.761781465754712533e-02 6.854731710103556530e-02 9.405822375857109119e-02 8.080988691046137040e-02 3.695624331034876725e-02 1.023548623798772829e-03 -4.177237517107309540e-03 1.961506829573783986e-02 7.783020571310421409e-02 1.051475687906868184e-01 5.688781830272076484e-02 4.436177661146813861e-03 -1.366210235999736761e-03 -2.368482403463878505e-03 -4.094931351954376130e-04 -1.316942936494853327e-04 -7.173350783054053920e-06 -1.236479133014159147e-263 5.967809594851127424e-264 8.328027525205870997e-265 -1.757749263686936126e-230 -2.559076133897210490e-230 -6.843161931139114709e-05 -5.672522897484231401e-04 -1.112821374597043438e-03 -1.618086389709258053e-03 -2.020338069430302648e-03 -4.640031725647280302e-03 3.585689758491139578e-02 9.487685459863606785e-02 1.155906640286879228e-01 7.677102832626458984e-02 2.044511910563310067e-02 -2.347874772929844922e-03 -3.318942080766470841e-03 1.747817161800027316e-02 8.375903412424011429e-02 1.174168870548705224e-01 6.708748007537808367e-02 7.545685158293772947e-03 -8.174868062622307795e-04 -1.819622528364969521e-03 -1.511794279163073795e-04 -1.711893009856720590e-08 -3.850120859257940452e-09 -5.811331123118594091e-155 1.098072436753229927e-264 -5.442509424647740346e-264 -1.395859709398423653e-230 -2.744372802782522148e-05 -2.986609310185311126e-04 -4.341650339565863233e-04 -1.350301349505198152e-03 -2.020526916217854976e-03 -4.962502386703814515e-03 -3.232402711332727201e-03 5.718712422332814654e-02 1.149684342795566361e-01 1.177062359262576324e-01 5.429874257619126537e-02 6.808305952261430906e-03 -3.476822026519378779e-03 -4.172603780846051436e-03 1.641807700568667303e-02 8.283921124458681895e-02 1.194328604563730245e-01 7.334893320910697290e-02 7.691944422791480683e-03 -2.029742188462576018e-03 -1.406581024499918868e-03 -1.560137130498188550e-04 3.125243952732463629e-05 -1.189396364955821904e-08 -2.187795246350493535e-154 1.875791505734309406e-264 4.807398329683573680e-265 -5.778794921286330326e-06 -1.291863896440696876e-04 -1.983199929981984755e-04 -3.572605986149926765e-04 -1.406165235482327016e-03 -2.425064856408870248e-03 -8.281890539263783019e-03 5.362364028268284087e-03 8.136817955221682663e-02 1.333024657437861249e-01 9.835248661756462729e-02 2.734597617421798132e-02 -4.844200733943404102e-04 -2.525976745351589132e-03 -3.594551382051476042e-03 2.115852248493441112e-02 9.078300559791192825e-02 1.201892608719330457e-01 7.029612451977290677e-02 5.737556625686135274e-03 -3.630413413811724339e-03 -1.325656314610410566e-03 -1.525415623987932414e-05 2.701065226846980394e-05 -8.992565984310949044e-05 -1.159041835177904487e-04 -2.357212956133097058e-264 1.002116802369755379e-264 -1.323995724833837074e-11 -2.075020921310816806e-05 -1.084362889986491794e-04 -2.137763760380628243e-04 -7.701902205980563389e-04 -3.356656235496685049e-03 -1.000935340348183510e-02 2.117171035741747739e-02 1.040651748791411035e-01 1.310198938588490736e-01 7.323319131217133349e-02 9.866939219298100430e-03 -2.109011627819990485e-03 -3.571727232887829048e-03 -1.724715347886002920e-03 2.950824514771548807e-02 9.694002965813777739e-02 1.223889861473501511e-01 6.466646591240272912e-02 3.638166359992373120e-03 -1.965239256585875078e-03 -8.235894646350603579e-04 -1.507083660675939565e-04 5.963077293000562402e-04 -1.779031411300996933e-04 -2.315257414992091304e-05 -8.394423618686398301e-260 2.656725548363636518e-264 8.925396682772436877e-245 8.888664181971346054e-245 6.130419874631085292e-05 4.663685706354697485e-04 -7.810727966788276770e-04 -5.272363511620631674e-03 -5.863327519933447633e-03 4.889494686905843795e-02 1.231196028642402712e-01 1.187038404556128579e-01 5.093541592784893435e-02 6.274840445241347542e-03 -9.583166710851494371e-04 -1.623809000275794020e-04 1.476063540692249335e-03 3.936735018338528846e-02 1.058136824550032495e-01 1.264487318735123544e-01 6.298032500140272882e-02 6.669163998848270242e-03 2.511664205444370541e-03 2.942128642820483059e-03 2.515486354197130330e-03 1.301940677811435580e-03 -9.514061032507220637e-05 -2.025390997577109962e-04 -3.517176784815615737e-259 -4.199907236062430316e-264 4.269746745199671725e-245 8.927652285402976655e-245 -1.363118903040928896e-04 3.513340153528171292e-05 -3.113809323199152163e-04 -4.384341955993000840e-03 5.946858962787239869e-03 7.179004652167146616e-02 1.259612150443540357e-01 1.023122725276761347e-01 4.736126244519486828e-02 2.001259663467483060e-02 1.487313257893545584e-02 1.173382174758780434e-02 1.951967542166473460e-02 6.028977758404629322e-02 1.184221546975751521e-01 1.250141531182940302e-01 6.207030289623417796e-02 1.367895173125579372e-02 4.533086072478758645e-03 3.733183125130018487e-03 3.669880054242327140e-03 3.406149091984582954e-03 1.315573719504398555e-03 -1.322943252752676897e-04 -3.908186775457629751e-260 4.568878192519821412e-264 2.117229791008052609e-246 -1.416929509552549283e-04 -6.354199459915122524e-04 -9.764862707112583569e-04 1.217190216799120045e-03 1.451934852869005447e-03 2.647519914652265646e-02 8.285197588241013933e-02 1.261840959389363137e-01 1.035608781441370446e-01 5.982985240441009850e-02 4.688572344785747747e-02 4.336400389634934710e-02 5.109536454390294774e-02 6.617522293934875732e-02 9.235104840733082687e-02 1.303513733093044080e-01 1.255273253129570166e-01 6.228901634693226330e-02 1.743426734804254599e-02 6.075907327340058887e-03 4.056361449131889313e-03 2.199209003179789911e-03 1.873594550722793668e-03 2.113923292215669821e-03 -1.782703123513495190e-07 -4.595126590622894711e-264 -1.306460894888993904e-265 7.181800251178444746e-264 -1.890325665467838405e-05 -5.383205118908602213e-04 -1.820197541037778992e-03 1.300506821498842143e-03 1.007446679378989039e-02 3.450239611421895142e-02 8.218333362288328392e-02 1.183117228404143573e-01 1.089634152459741656e-01 8.906213761439175924e-02 8.461213403661857479e-02 8.992365260221781009e-02 9.725462364284957750e-02 1.004627373424018949e-01 1.090437034339000605e-01 1.357615875894633839e-01 1.170408136160400181e-01 4.823537740417033204e-02 1.367764964460394840e-02 7.589254354083726888e-03 3.278489559993827233e-03 1.561588357314009040e-04 9.340100942724065963e-04 6.719499425717007307e-04 -1.176584061518899223e-05 -2.491353681498517066e-69 1.709792803683218435e-264 5.428960689515773339e-264 -1.992428482690160282e-06 4.619175415261612771e-05 -6.464729856907562707e-04 2.708680362093693746e-05 1.007778938686328812e-02 3.466839986942566593e-02 6.788161697057892852e-02 9.788787765847467570e-02 9.984198031056792932e-02 9.471983576519917014e-02 9.649401659718505331e-02 9.490006940102070632e-02 8.862186240223032807e-02 7.873782010803336007e-02 9.691236101005741566e-02 1.348548523752766959e-01 1.044800944411594934e-01 3.510948053360040538e-02 9.423564017855285552e-03 4.298914927661141513e-03 1.404182387017963488e-04 8.451338051100388323e-04 9.170227132419411786e-04 -2.711897837224501592e-05 -1.453242436082632409e-06 -2.159173190632029455e-68 -1.912796730804260701e-264 -4.282471120569232193e-264 -9.364413868643727999e-05 3.143337379458955531e-04 1.425280563627196687e-04 -1.770225442500723400e-03 5.907316255131549697e-03 2.105500664917312609e-02 3.813728566650277652e-02 5.373604033023572646e-02 5.928012402019519622e-02 6.047611486793350727e-02 5.692178486715523261e-02 4.957706022143119201e-02 3.575229853728410789e-02 3.510719572288544671e-02 8.377561499387044253e-02 1.325995273594452739e-01 9.185103677085584839e-02 2.272635090846631539e-02 -1.491958657014028945e-04 -2.023287571342015281e-03 -1.429838167926710197e-03 -8.709847690789343207e-04 -5.582612195625093416e-04 -4.580466258955909691e-05 -8.174488702964839065e-07 2.627856373815807941e-264 -2.108001396332639355e-264 -2.345992685953832873e-264 -2.191671330959176530e-04 -1.441610675822923193e-04 2.317616439346196350e-04 -5.484174372893409590e-04 4.767586604475394091e-03 1.185576515011757710e-02 1.737369944404101516e-02 2.051236423535003281e-02 1.907676983765260043e-02 1.826885494704711191e-02 1.314994615593518927e-02 7.515126454103407232e-03 5.559207754449428315e-03 1.559294556650792085e-02 8.084204006841737289e-02 1.309228605381501376e-01 8.450832894412647900e-02 2.058593101918773649e-02 1.927404905100226829e-04 -6.093535730770835955e-04 -4.071680055627583858e-04 -1.125913265540163106e-04 -3.448778438828210965e-04 -1.497688492923692738e-05 -4.643786370881031095e-243 -2.442977111405106189e-264 5.832757041827643647e-264 2.127109787724976391e-266 -1.275154228921702580e-04 -2.093068463432236717e-04 -2.913772107832853018e-04 -2.206711593363016417e-04 2.353882422959721350e-03 5.875482365989619267e-03 8.127328501263670832e-03 7.980081592117256248e-03 5.493660147679772093e-03 3.577871002839230850e-03 1.129663715455447642e-03 -1.679740784964965520e-03 -5.711446401638313117e-03 9.899769633642922090e-03 8.455949229158586655e-02 1.271182751762270635e-01 7.475242341965658566e-02 1.907819647134240473e-02 8.774512592549002206e-04 -3.908513364055088662e-04 -3.047891455517143158e-04 -1.955016908814661289e-04 -1.234095318169122553e-04 -7.787980163203192142e-06 -6.771594016350848380e-264 -7.487128247848439699e-264 3.587950095971136390e-264 -4.610974281030365510e-264 -2.988642724035241693e-06 6.444835870516042709e-05 -1.312883823289704066e-61 2.733898198217685443e-04 7.404079691787648584e-05 1.292461925323406180e-03 2.679489489843537003e-03 3.155367627941312297e-03 1.346077101855728923e-03 -1.278189299209342032e-04 -1.132225815201640942e-03 -2.646019343999730499e-03 -5.433715970261289267e-03 1.956970855821529159e-02 8.936411311807862523e-02 1.195546996807548973e-01 7.280501688614177125e-02 1.943177669666761032e-02 2.511764812521007605e-03 9.388105880105926827e-04 3.841447732986868037e-05 -2.632232371808643418e-04 -5.425847357439317564e-05 -4.418421131776091842e-76 -7.157404611308965089e-264 8.702862603795558065e-264 7.922631304202345472e-265 7.637101398046378369e-264 7.133051485824734089e-265 -2.263719512219344713e-91 -2.037347560997446785e-90 -1.354230447224961582e-09 9.040226109433019018e-05 6.273971690927755045e-04 1.560030977418837067e-03 1.301635089092034519e-03 6.060627976453197884e-04 -5.688776593126429687e-04 -1.243835374801097919e-03 -1.856691547286382820e-03 -3.596828143208287507e-03 2.652155109117147053e-02 9.005115562850865563e-02 1.174696409361450505e-01 6.968333856990142905e-02 2.152960541581611792e-02 4.573381027243850032e-03 1.187785416517707924e-03 4.149530029904948108e-04 -4.852510717072754727e-05 -3.726201679537025802e-74 -7.364034951778932288e-76 -6.859906461519653338e-265 6.187895943631927199e-264 1.775837356031665178e-264 2.640064058173652971e-264 9.073901203104822851e-265 -8.319144464463349820e-264 6.573119485841525163e-265 -6.884889755857225510e-27 2.511060383323667042e-04 6.761514467863076559e-04 1.387487501312748006e-03 9.718503723863468162e-04 3.909349862482190056e-04 1.625711185787891209e-04 -6.766827666259217174e-05 -2.137319456880274436e-03 -6.109043159133126580e-03 2.480358279318147993e-02 8.207514015607969560e-02 1.003539603504688960e-01 5.763413441479751237e-02 1.684443646227493790e-02 1.124168787316938032e-03 -1.288491278899518613e-03 -1.672255230223243017e-04 -3.726201667118580034e-74 -2.017745566779672910e-74 -1.472806983050836988e-76 -6.294261556859049430e-264 5.506886261335290597e-264 -2.214613586316623972e-265 1.664058715235367414e-264 -2.155553986534639820e-264 -4.449758373963137287e-264 -2.025323713659229608e-264 8.979620138142719373e-265 1.113469614439418367e-264 1.444360131345582036e-04 9.759181949491777756e-04 1.041678696880410674e-03 4.049256680417459889e-04 1.044675977172886832e-04 -1.640791577424927322e-04 -1.618734546762444710e-03 -4.325851345818883427e-03 1.846437124453706793e-02 5.076214234375764356e-02 5.518283401515369779e-02 2.352395574797072966e-02 3.759254494243339465e-03 -1.728326869937826934e-03 -2.547177546230115471e-04 -1.778634203189304120e-05 -1.171520593195146079e-235 -1.912713031908203171e-242 -1.983836578172506954e-264 -2.582526652509028407e-264 -2.430919357931911678e-264 -2.372352354127962254e-264 2.666572049586282078e-265 3.367709650015912450e-264 6.583263369644612908e-265 -5.114832818755400063e-264 -1.735595251859853173e-263 -1.489650433618304221e-91 -1.243807348644191128e-41 -3.841509988141419903e-05 -7.634305345211363648e-05 -2.696604077490552401e-04 -3.359098693322570177e-04 -4.313867297128401944e-04 -7.366494107052405692e-04 -2.950228038331535914e-03 4.116024388594532665e-03 1.358323541215259757e-02 1.014847475112041347e-02 -1.146112934251825553e-03 -3.403726638696427057e-03 -1.269298554804310000e-03 5.025979094577651319e-05 -2.439343360223755866e-06 -1.193715022921391978e-241 1.638861370655255849e-264 -4.281109785684658010e-264 2.116719144166268565e-265 -3.864396521180048152e-264 -5.056113323151425867e-265 -3.200742883613732784e-264 -2.915308418305100683e-264 4.885231308640426503e-264 -9.875981828551077481e-265 1.354140162051603851e-264 4.909257453182311519e-264 2.967876727677456390e-259 1.329866769845788804e-258 7.020331220386603651e-259 2.119831144106477532e-264 -7.888414343711644439e-157 -2.424148278304853317e-30 -4.982456201527297985e-05 -1.254407828911287075e-04 1.414205004704434951e-03 3.578832900056722402e-03 1.993595966828705553e-03 -2.013584022873428532e-03 -1.492380037411685260e-03 -8.062586205725955535e-05 -3.555260581907056055e-07 -6.095332131861419427e-265 -4.050873330126679594e-264 6.805542384125243350e-264 -8.736856463211200039e-265 5.579062180568807336e-265 -2.094333341612594240e-264 3.480548671146166123e-265 -3.621601299892486217e-264 4.283219369977297584e-264 -4.607858849920738689e-264 6.755896080588312374e-264 9.731593905925935879e-265 2.340104929288616611e-259 1.329866555199400977e-258 1.210006813861397314e-258 2.283111422435360949e-259 -2.047216571164471637e-264 2.817212151377575832e-264 -1.620880677189244639e-264 5.656496173095171477e-05 5.733630211819208200e-04 4.175808842653734587e-04 2.989755996580867933e-04 -1.718553721323024040e-04 -2.296204492432577597e-242 4.591584254636779794e-264 3.059347289452818488e-264 -7.339242604397079416e-264 3.638483241969474975e-264 -5.656009400018337195e-264 -8.477823370793291012e-265 5.780067148854265971e-266 4.991199028041171667e-264 2.706774053126800366e-265
